{
    "w1": [
        -799,
        2488,
        -6917,
        486,
        -807,
        -1634,
        -5289,
        7033,
        103,
        -4093,
        -1485,
        -1807,
        2932,
        3377,
        4300,
        441,
        -20895,
        744,
        2217,
        4537,
        6074,
        6973,
        4979,
        6815,
        5065,
        5579,
        7118,
        -15852,
        -18,
        -1836,
        -7139,
        3204,
        -56855,
        -2219,
        -2195,
        -2657,
        -1972,
        809,
        8,
        87,
        -745,
        -1833,
        -595,
        -2719,
        -2375,
        -1949,
        -203,
        -289,
        -2270,
        -1486,
        -186,
        496,
        -653,
        -1157,
        547,
        -1953,
        -342,
        -2214,
        -1993,
        -1592,
        103,
        -12,
        -1937,
        -204,
        334,
        -949,
        -649,
        -337,
        472,
        1166,
        -693,
        -705,
        756,
        1595,
        1675,
        1698,
        383,
        -1674,
        177,
        -1204,
        -1794,
        -71,
        -2576,
        -266,
        2990,
        34,
        -2245,
        2812,
        -4537,
        2315,
        -3412,
        5439,
        -3518,
        4049,
        -5177,
        -13110,
        11587,
        3339,
        3846,
        -10239,
        1810,
        1297,
        -839,
        -484,
        -1833,
        -35,
        -1449,
        -1484,
        244,
        3126,
        -454,
        -407,
        -1093,
        2490,
        -158,
        -6539,
        -7801,
        4041,
        1129,
        6001,
        -4161,
        -11111,
        -5539,
        7568,
        11307,
        -2202,
        -4416,
        -937,
        -673,
        -1577,
        -409,
        411,
        -1254,
        -99,
        1378,
        -56,
        524,
        2672,
        -1660,
        470,
        557,
        1850,
        3582,
        -511,
        668,
        -1738,
        576,
        -2828,
        4508,
        1113,
        894,
        -56937,
        -1584,
        108,
        1040,
        -1856,
        1200,
        -1506,
        -407,
        -780,
        -371,
        -378,
        -24631,
        -1241,
        2937,
        -1305,
        -1516,
        2552,
        -4280,
        -543,
        -1795,
        -8835,
        -447,
        -2879,
        -2505,
        360,
        -26,
        145,
        3010,
        -617,
        797,
        -1425,
        352,
        -485,
        -97,
        -342,
        -1485,
        -1427,
        -2608,
        -349,
        868,
        3139,
        -2632,
        1788,
        -5323,
        -6157,
        -2143,
        4461,
        -574,
        -915,
        -5875,
        -6187,
        -4548,
        -3493,
        342,
        3181,
        -1173,
        874,
        1345,
        892,
        634,
        268,
        890,
        209,
        635,
        894,
        -4331,
        -8549,
        -1373,
        2560,
        -2407,
        4678,
        -3292,
        5192,
        1379,
        -1337,
        1054,
        -443,
        4952,
        6307,
        5030,
        4489,
        4389,
        14843,
        17737,
        -1217,
        863,
        -1360,
        -816,
        566,
        635,
        1444,
        -620,
        630,
        -2378,
        -8738,
        -1682,
        -5043,
        746,
        3931,
        -4523,
        5661,
        -3990,
        -5711,
        3852,
        -4616,
        -27254,
        8827,
        5819,
        -2526,
        -2265,
        2719,
        4504,
        4962,
        4183,
        2842,
        2947,
        4053,
        5067,
        4008
    ],
    "b1": [
        -728,
        1116,
        -2565,
        923,
        -953,
        -2996,
        -128,
        -180,
        -7969,
        2309
    ],
    "w2": [
        8428,
        -23360,
        -1948,
        4805,
        4958,
        6338,
        -17978,
        5048,
        -12426,
        5841,
        -10253,
        22302,
        392,
        -2349,
        -5154,
        -5664,
        19105,
        -6470,
        12999,
        -7045
    ],
    "b2": [
        -18773845,
        9197830
    ]
}